{"learner":{"attributes":{"scikit_learn":"{\"_estimator_type\": \"classifier\"}"},"feature_names":["PTR_SEQUENCE_NUM","ABO_DON","RT_KI_GLOMERUL_COUNT","HIST_IV_DRUGUSE","COD_CAD_DON","CONSENT_PX_WRIT_DOC","DEATH_CIRCUM_DON","DEATH_MECH_DON","NON_HRT_DON","BLOOD_INF_DON","BUN_DON","CARDARREST_POSTNEURO_DON","CMV_DON","CREAT_DON","OTHER_INF_DON","PROTEIN_URINE_DON","PT_DIURETICS_DON","HEPARIN_DON","PT_STEROIDS_DON","PULM_INF_DON","URINE_INF_DON","VDRL_DON","HBV_DNA","CANCER_FREE_INT_DON","ALCOHOL_HEAVY_DON","EXTRACRANIAL_CANCER_DON","HIST_CIG_DON","HIST_COCAINE_DON","HIST_DIABETES_DON","HIST_OTH_DRUG_DON","INSULIN_DEP_DON","INTRACRANIAL_CANCER_DON","SKIN_CANCER_DON","TATTOOS_DON","CDC_RISK_HIV_DON","TB_HISTORY","CHEST_XRAY_DON","HISTORY_MI_DON","LT_KI_GLOMERUL_DON","LV_EJECT_DON","LV_EJECT_METH_DON","VESSELS_NUM_STEN_DON","WALL_ABN_SEG_DON","WALL_ABN_GLOB_DON","ABN_VALVES_DON","ABN_CONGEN_DON","ABN_LVH_DON","LT_KI_BIOPSY_TY","LT_KI_VASCULAR_CHANGES","HEART_PERFUSION","KIB_DISPOSITION","LIS1_INITIAL_FLUSH","LIS1_BACK_TBL_FLUSH","KIL_FINAL_FLUSH","KIL_BACK_TBL_FLUSH","KIL_REASON_CD","LUR_REASON_CD","PA_DISPOSITION","KIR_BACK_TBL_FLUSH","HIST_CANCER_DON","HIST_HYPERTENS_DON","HYPERTENS_DUR_DON","AGE_DON","ETHCAT_DON","ECD_DONOR","NUM_KI_RECOV","NUM_ORG_TX","NUM_ORG_DISC","HGT_CM_DON_CALC","WGT_KG_DON_CALC","BMI_DON_CALC","KDPI","COVID19_ANTIBODY_TESTRESULT","TOTAL_URINE_OUTPUT","CARDARREST_DOWNTM_DURATION","HIST_CAD","STRONGYLOIDES","USE_DOUBLE_KI","LEFT_KI_PUMP_SOLUTION","EXTRACORPOREAL_SUPPORT","DIURETICS","INSULIN","ANTIHYPE","DDR51","DDR51_2","DDR52_2","DDR53_2","DDQ2","NUM_PREV_TX","PEAK_PRA","GFR","DONATION","ON_DIALYSIS","A2A2B_ELIGIBILITY","ANTIBODY_TESTED","GENDER","ABO","WGT_KG_TCR","CITIZENSHIP","PERM_STATE","EDUCATION","FUNC_STAT_TCR","DIAB","DRUGTRT_COPD","INIT_STAT","END_CPRA","INIT_EPTS","ETHCAT","PERIP_VASC","EXH_PERIT_ACCESS","AGE_DIAB","EXH_VASC_ACCESS","PRI_PAYMENT_TCR_KI","FUNC_STAT_TRR","PREV_PREG","TXKID","RDA2","NPKID","CMV_IGM_DON","DON_TY","AGE","DWFG_KI","GSTATUS_KI","PRE_AVG_INSULIN_USED_TRR","BLOOD_SUGAR_MEDICATION_PA","EBV_SEROSTATUS","HBV_CORE","HCV_SEROSTATUS","CMV_STATUS","PX_STAT","SHARE_TY","MALIG","HGT_CM_CALC","WGT_KG_CALC","BMI_CALC","KI_CREAT_PREOP","SELF_DON","TATTOOS","LT_KI_GLOMERUL","RT_KI_GLOMERUL","REGION_IDENTICAL","years_diabetic","days_since_prev_ki","brain_death_to_cold_flush","cold_ischemia_time","warm_ischemia_time","time_on_dialysis","time_since_gfr_less_than_20","time_since_previous_kidney_transplant","Match_date_DOW","Match_date_Month","MATCH_Time_TOD","WARM_ISCH_TM_DON_TOD","total_mismatch","a_mismatch","b_mismatch","dr_mismatch","Imputed_KDPI","utilization_probability","baseline_prob"],"feature_types":["int","c","float","c","c","c","c","c","c","float","float","c","c","float","float","c","c","c","c","float","float","c","c","float","c","c","c","c","c","c","c","c","c","c","c","float","float","c","float","float","float","float","c","c","c","c","c","float","float","c","float","float","float","float","float","float","float","c","float","c","int","c","float","c","float","int","int","int","float","float","float","float","c","float","float","c","c","c","float","c","c","c","c","c","c","c","c","c","float","float","float","c","c","float","c","c","c","float","c","c","c","c","c","c","c","float","float","c","c","c","float","c","c","float","c","c","float","float","c","c","float","c","float","float","c","c","c","c","c","c","c","c","float","float","float","float","c","c","float","float","int","float","float","float","float","float","float","float","float","int","int","c","c","int","int","int","int","c","float","float"],"gradient_booster":{"model":{"gbtree_model_param":{"num_parallel_tree":"1","num_trees":"100"},"iteration_indptr":[0,1,2,3,4,5,6,7,8,9,10,11,12,13,14,15,16,17,18,19,20,21,22,23,24,25,26,27,28,29,30,31,32,33,34,35,36,37,38,39,40,41,42,43,44,45,46,47,48,49,50,51,52,53,54,55,56,57,58,59,60,61,62,63,64,65,66,67,68,69,70,71,72,73,74,75,76,77,78,79,80,81,82,83,84,85,86,87,88,89,90,91,92,93,94,95,96,97,98,99,100],"tree_info":[0,0,0,0,0,0,0,0,0,0,0,0,0,0,0,0,0,0,0,0,0,0,0,0,0,0,0,0,0,0,0,0,0,0,0,0,0,0,0,0,0,0,0,0,0,0,0,0,0,0,0,0,0,0,0,0,0,0,0,0,0,0,0,0,0,0,0,0,0,0,0,0,0,0,0,0,0,0,0,0,0,0,0,0,0,0,0,0,0,0,0,0,0,0,0,0,0,0,0,0],"trees":[{"base_weights":[1.5003726E-8,-5.9940946E-1,5.9764475E-1],"categories":[],"categories_nodes":[],"categories_segments":[],"categories_sizes":[],"default_left":[0,0,0],"id":0,"left_children":[1,-1,-1],"loss_changes":[8.1000664E3,0E0,0E0],"parents":[2147483647,0,0],"right_children":[2,-1,-1],"split_conditions":[3.4919795E-2,-5.9940946E-1,5.9764475E-1],"split_indices":[159,0,0],"split_type":[0,0,0],"sum_hessian":[2.033E3,1.015E3,1.018E3],"tree_param":{"num_deleted":"0","num_feature":"160","num_nodes":"3","size_leaf_vector":"1"}},{"base_weights":[-5.4405667E-5,-4.642411E-1,4.6260473E-1],"categories":[],"categories_nodes":[],"categories_segments":[],"categories_sizes":[],"default_left":[0,0,0],"id":1,"left_children":[1,-1,-1],"loss_changes":[4.4461826E3,0E0,0E0],"parents":[2147483647,0,0],"right_children":[2,-1,-1],"split_conditions":[3.4919795E-2,-4.642411E-1,4.6260473E-1],"split_indices":[159,0,0],"split_type":[0,0,0],"sum_hessian":[1.8612715E3,9.290237E2,9.3224774E2],"tree_param":{"num_deleted":"0","num_feature":"160","num_nodes":"3","size_leaf_vector":"1"}},{"base_weights":[-1.780091E-4,-4.030376E-1,4.0108192E-1],"categories":[],"categories_nodes":[],"categories_segments":[],"categories_sizes":[],"default_left":[0,0,0],"id":2,"left_children":[1,-1,-1],"loss_changes":[2.7921938E3,0E0,0E0],"parents":[2147483647,0,0],"right_children":[2,-1,-1],"split_conditions":[3.4919795E-2,-4.030376E-1,4.0108192E-1],"split_indices":[159,0,0],"split_type":[0,0,0],"sum_hessian":[1.5525659E3,7.744957E2,7.780702E2],"tree_param":{"num_deleted":"0","num_feature":"160","num_nodes":"3","size_leaf_vector":"1"}},{"base_weights":[-3.4050102E-4,-3.686104E-1,3.6609733E-1],"categories":[],"categories_nodes":[],"categories_segments":[],"categories_sizes":[],"default_left":[0,0,0],"id":3,"left_children":[1,-1,-1],"loss_changes":[1.863273E3,0E0,0E0],"parents":[2147483647,0,0],"right_children":[2,-1,-1],"split_conditions":[3.4919795E-2,-3.686104E-1,3.6609733E-1],"split_indices":[159,0,0],"split_type":[0,0,0],"sum_hessian":[1.240665E3,6.183799E2,6.2228516E2],"tree_param":{"num_deleted":"0","num_feature":"160","num_nodes":"3","size_leaf_vector":"1"}},{"base_weights":[-5.521495E-4,-3.4714928E-1,1.1461225E0,9.3737173E-1,3.474842E-1,3.254354E-1,-5.0964307E-2],"categories":[0,1,2,4,5,6],"categories_nodes":[3],"categories_segments":[0],"categories_sizes":[6],"default_left":[0,0,0,1,0,0,0],"id":4,"left_children":[1,-1,3,5,-1,-1,-1],"loss_changes":[1.2862089E3,0E0,1.5032959E-1,5.414934E0,0E0,0E0,0E0],"parents":[2147483647,0,0,2,2,3,3],"right_children":[2,-1,4,6,-1,-1,-1],"split_conditions":[3.4919795E-2,-3.4714928E-1,9.990157E-1,NaN,3.474842E-1,3.254354E-1,-5.0964307E-2],"split_indices":[159,0,159,1,0,0,0],"split_type":[0,0,0,1,0,0,0],"sum_hessian":[9.678032E2,4.818093E2,4.8599393E2,3.1045965E1,4.5494797E2,2.7416227E1,3.6297374E0],"tree_param":{"num_deleted":"0","num_feature":"160","num_nodes":"7","size_leaf_vector":"1"}},{"base_weights":[-2.874171E-4,-3.329291E-1,1.0953715E0,8.519879E-1,3.3313152E-1,3.0652568E-1,-3.7656695E-2],"categories":[0,1,2,4,5,6],"categories_nodes":[3],"categories_segments":[0],"categories_sizes":[6],"default_left":[0,0,0,1,0,0,0],"id":5,"left_children":[1,-1,3,5,-1,-1,-1],"loss_changes":[9.0702716E2,0E0,4.30542E-1,4.473051E0,0E0,0E0,0E0],"parents":[2147483647,0,0,2,2,3,3],"right_children":[2,-1,4,6,-1,-1,-1],"split_conditions":[3.4919795E-2,-3.329291E-1,9.990157E-1,NaN,3.3313152E-1,3.0652568E-1,-3.7656695E-2],"split_indices":[159,0,159,1,0,0,0],"split_type":[0,0,0,1,0,0,0],"sum_hessian":[7.4415137E2,3.6973785E2,3.7441348E2,2.5181929E1,3.4923157E2,2.1417149E1,3.7647798E0],"tree_param":{"num_deleted":"0","num_feature":"160","num_nodes":"7","size_leaf_vector":"1"}},{"base_weights":[3.5304623E-5,-3.230996E-1,1.0582546E0,7.7262807E-1,3.2321042E-1,-1.3386762E-1,9.41424E-1,3.1174698E-1,2.9078273E-2],"categories":[],"categories_nodes":[],"categories_segments":[],"categories_sizes":[],"default_left":[0,0,0,0,0,0,1,0,0],"id":6,"left_children":[1,-1,3,5,-1,-1,7,-1,-1],"loss_changes":[6.483611E2,0E0,7.340698E-1,4.8501005E0,0E0,0E0,1.4868107E0,0E0,0E0],"parents":[2147483647,0,0,2,2,3,3,6,6],"right_children":[2,-1,4,6,-1,-1,8,-1,-1],"split_conditions":[3.4919795E-2,-3.230996E-1,9.990157E-1,1.9E1,3.2321042E-1,-1.3386762E-1,2.15E2,3.1174698E-1,2.9078273E-2],"split_indices":[159,0,159,0,0,0,56,0,0],"split_type":[0,0,0,0,0,0,0,0,0],"sum_hessian":[5.668684E2,2.8092792E2,2.8594046E2,2.0532358E1,2.654081E2,2.2976625E0,1.8234695E1,1.613671E1,2.0979855E0],"tree_param":{"num_deleted":"0","num_feature":"160","num_nodes":"9","size_leaf_vector":"1"}},{"base_weights":[4.519474E-4,-3.1606376E-1,1.0285788E0,6.913209E-1,3.1610394E-1,-2.858559E-1,9.412936E-1,-2.7369282E-1,1.8643449E-1,3.007752E-1,7.6111466E-2],"categories":[],"categories_nodes":[],"categories_segments":[],"categories_sizes":[],"default_left":[0,0,0,0,0,0,0,0,0,0,0],"id":7,"left_children":[1,-1,3,5,-1,7,9,-1,-1,-1,-1],"loss_changes":[4.675057E2,0E0,1.1203461E0,4.674673E0,0E0,3.091155E0,3.6070728E-1,0E0,0E0,0E0,0E0],"parents":[2147483647,0,0,2,2,3,3,5,5,6,6],"right_children":[2,-1,4,6,-1,8,10,-1,-1,-1,-1],"split_conditions":[3.4919795E-2,-3.1606376E-1,9.990157E-1,5.9E1,3.1610394E-1,5.8E1,7.1E1,-2.7369282E-1,1.8643449E-1,3.007752E-1,7.6111466E-2],"split_indices":[159,0,159,120,0,0,0,0,0,0,0],"split_type":[0,0,0,0,0,0,0,0,0,0,0],"sum_hessian":[4.2942026E2,2.1203009E2,2.1739018E2,1.703596E1,2.0035422E2,3.441017E0,1.3594943E1,2.0322924E0,1.4087245E0,1.2061672E1,1.5332708E0],"tree_param":{"num_deleted":"0","num_feature":"160","num_nodes":"11","size_leaf_vector":"1"}},{"base_weights":[1.4269378E-3,-3.1084618E-1,1.0032696E0,6.167823E-1,3.108252E-1,8.9737743E-1,-1.4625481E-1,2.9050055E-1,3.296619E-2],"categories":[0,1,2,3,4],"categories_nodes":[3,5],"categories_segments":[0,2],"categories_sizes":[2,3],"default_left":[0,0,0,1,0,1,0,0,0],"id":8,"left_children":[1,-1,3,5,-1,7,-1,-1,-1],"loss_changes":[3.3922498E2,0E0,1.4665833E0,5.2292356E0,0E0,6.0229874E-1,0E0,0E0,0E0],"parents":[2147483647,0,0,2,2,3,3,5,5],"right_children":[2,-1,4,6,-1,8,-1,-1,-1],"split_conditions":[3.4919795E-2,-3.1084618E-1,9.990157E-1,NaN,3.108252E-1,NaN,-1.4625481E-1,2.9050055E-1,3.296619E-2],"split_indices":[159,0,159,1,0,4,0,0,0],"split_type":[0,0,0,1,0,1,0,0,0],"sum_hessian":[3.24337E2,1.5930989E2,1.6502713E2,1.4464206E1,1.5056293E2,1.1683006E1,2.7811997E0,1.0506646E1,1.1763598E0],"tree_param":{"num_deleted":"0","num_feature":"160","num_nodes":"9","size_leaf_vector":"1"}},{"base_weights":[2.16185E-3,-3.0680746E-1,9.798559E-1,5.431017E-1,3.0672702E-1,-4.72853E-1,8.6561877E-1,-3.580007E-1,1.7489642E-1,2.9577928E-2,2.8471094E-1],"categories":[],"categories_nodes":[],"categories_segments":[],"categories_sizes":[],"default_left":[0,0,0,0,0,1,0,0,0,0,0],"id":9,"left_children":[1,-1,3,5,-1,7,9,-1,-1,-1,-1],"loss_changes":[2.4697636E2,0E0,1.7899323E0,4.7788973E0,0E0,3.632108E0,5.7669306E-1,0E0,0E0,0E0,0E0],"parents":[2147483647,0,0,2,2,3,3,5,5,6,6],"right_children":[2,-1,4,6,-1,8,10,-1,-1,-1,-1],"split_conditions":[3.4919795E-2,-3.0680746E-1,9.990157E-1,3E1,3.0672702E-1,5E1,2.4628246E1,-3.580007E-1,1.7489642E-1,2.9577928E-2,2.8471094E-1],"split_indices":[159,0,159,0,0,2,70,0,0,0,0],"split_type":[0,0,0,0,0,0,0,0,0,0,0],"sum_hessian":[2.4448502E2,1.1934127E2,1.25143745E2,1.2335623E1,1.1280812E2,2.8600626E0,9.47556E0,1.6226078E0,1.2374547E0,1.1434499E0,8.33211E0],"tree_param":{"num_deleted":"0","num_feature":"160","num_nodes":"11","size_leaf_vector":"1"}},{"base_weights":[3.30157E-3,-3.0349928E-1,9.563457E-1,4.7566253E-1,3.0335513E-1,-4.8685732E-1,8.22748E-1,1.6259764E-1,-3.3176035E-1,2.749398E-1,2.5257204E-2],"categories":[],"categories_nodes":[],"categories_segments":[],"categories_sizes":[],"default_left":[0,0,0,0,0,0,0,0,0,0,0],"id":10,"left_children":[1,-1,3,5,-1,7,9,-1,-1,-1,-1],"loss_changes":[1.8023592E2,0E0,2.0520248E0,4.318714E0,0E0,2.9790952E0,5.452132E-1,0E0,0E0,0E0,0E0],"parents":[2147483647,0,0,2,2,3,3,5,5,6,6],"right_children":[2,-1,4,6,-1,8,10,-1,-1,-1,-1],"split_conditions":[3.4919795E-2,-3.0349928E-1,9.990157E-1,5.9E1,3.0335513E-1,3E0,7.1E1,1.6259764E-1,-3.3176035E-1,2.749398E-1,2.5257204E-2],"split_indices":[159,0,159,120,0,36,0,0,0,0,0],"split_type":[0,0,0,0,0,0,0,0,0,0,0],"sum_hessian":[1.8432727E2,8.9234E1,9.509328E1,1.0728306E1,8.436497E1,2.7366009E0,7.991705E0,1.074729E0,1.6618719E0,6.8780403E0,1.1136647E0],"tree_param":{"num_deleted":"0","num_feature":"160","num_nodes":"11","size_leaf_vector":"1"}},{"base_weights":[4.6654567E-3,-3.0058476E-1,9.319665E-1,4.1615924E-1,3.0036706E-1,7.815935E-1,-5.381734E-1,2.3128718E-2,2.645887E-1,-4.9236265E-1,1.8694262E-1],"categories":[0,1],"categories_nodes":[3],"categories_segments":[0],"categories_sizes":[2],"default_left":[0,0,0,1,0,0,1,0,0,0,0],"id":11,"left_children":[1,-1,3,5,-1,7,9,-1,-1,-1,-1],"loss_changes":[1.3170518E2,0E0,2.206829E0,4.0492277E0,0E0,4.9283743E-1,5.4717894E0,0E0,0E0,0E0,0E0],"parents":[2147483647,0,0,2,2,3,3,5,5,6,6],"right_children":[2,-1,4,6,-1,8,10,-1,-1,-1,-1],"split_conditions":[3.4919795E-2,-3.0058476E-1,9.990157E-1,NaN,3.0036706E-1,2.4E-1,7E1,2.3128718E-2,2.645887E-1,-4.9236265E-1,1.8694262E-1],"split_indices":[159,0,159,1,0,71,2,0,0,0,0],"split_type":[0,0,0,1,0,0,0,0,0,0,0],"sum_hessian":[1.39097E2,6.6657585E1,7.243942E1,9.404696E0,6.3034725E1,6.931488E0,2.473209E0,1.0848634E0,5.8466244E0,1.056498E0,1.4167107E0],"tree_param":{"num_deleted":"0","num_feature":"160","num_nodes":"11","size_leaf_vector":"1"}},{"base_weights":[4.9323537E-3,-2.9778987E-1,9.082314E-1,3.6100686E-1,2.9748327E-1,2.5503328E-1,-3.3959684E-1,4.152369E-1,-3.9650866E-1,1.5869708E-1,3.5277266E-2],"categories":[0,1,2,3,4,5,6,7,8,9,10,11,12,13,14,15,17,18],"categories_nodes":[6],"categories_segments":[0],"categories_sizes":[18],"default_left":[0,0,0,0,0,0,1,0,0,0,0],"id":12,"left_children":[1,-1,3,5,-1,-1,7,9,-1,-1,-1],"loss_changes":[9.629197E1,0E0,2.2006683E0,3.3682795E0,0E0,0E0,3.817492E0,4.797101E-2,0E0,0E0,0E0],"parents":[2147483647,0,0,2,2,3,3,6,6,7,7],"right_children":[2,-1,4,6,-1,-1,8,10,-1,-1,-1],"split_conditions":[3.4919795E-2,-2.9778987E-1,9.990157E-1,7.9E-1,2.9748327E-1,2.5503328E-1,NaN,4E1,-3.9650866E-1,1.5869708E-1,3.5277266E-2],"split_indices":[159,0,159,13,0,0,87,2,0,0,0],"split_type":[0,0,0,0,0,0,1,0,0,0,0],"sum_hessian":[1.0486002E2,4.9782948E1,5.507708E1,7.9870763E0,4.709E1,4.57782E0,3.4092567E0,2.2540243E0,1.1552322E0,1.0684439E0,1.1855804E0],"tree_param":{"num_deleted":"0","num_feature":"160","num_nodes":"11","size_leaf_vector":"1"}},{"base_weights":[5.6542726E-3,-2.948734E-1,8.8306576E-1,3.152835E-1,2.9445723E-1,6.8176305E-1,-1.406237E-1,2.7886964E-2,2.4068609E-1],"categories":[0,1],"categories_nodes":[3],"categories_segments":[0],"categories_sizes":[2],"default_left":[0,0,0,1,0,0,0,0,0],"id":13,"left_children":[1,-1,3,5,-1,7,-1,-1,-1],"loss_changes":[7.0458855E1,0E0,2.096157E0,2.5701141E0,0E0,3.331201E-1,0E0,0E0,0E0],"parents":[2147483647,0,0,2,2,3,3,5,5],"right_children":[2,-1,4,6,-1,8,-1,-1,-1],"split_conditions":[3.4919795E-2,-2.948734E-1,9.990157E-1,NaN,2.9445723E-1,2.4784153E1,-1.406237E-1,2.7886964E-2,2.4068609E-1],"split_indices":[159,0,159,1,0,70,0,0,0],"split_type":[0,0,0,1,0,0,0,0,0],"sum_hessian":[7.923124E1,3.7199226E1,4.2032017E1,6.8325806E0,3.5199436E1,4.7450385E0,2.0875418E0,1.1072003E0,3.6378384E0],"tree_param":{"num_deleted":"0","num_feature":"160","num_nodes":"9","size_leaf_vector":"1"}},{"base_weights":[7.5913584E-3,-2.916073E-1,8.499873E-1,2.7312595E-1,2.910555E-1,2.3665588E-1,-3.6813277E-1,1.5889704E-1,-2.726612E-1],"categories":[],"categories_nodes":[],"categories_segments":[],"categories_sizes":[],"default_left":[0,0,0,0,0,0,0,0,0],"id":14,"left_children":[1,-1,3,5,-1,-1,7,-1,-1],"loss_changes":[5.1452824E1,0E0,2.0590763E0,2.6621325E0,0E0,0E0,2.3642962E0,0E0,0E0],"parents":[2147483647,0,0,2,2,3,3,6,6],"right_children":[2,-1,4,6,-1,-1,8,-1,-1],"split_conditions":[3.4919795E-2,-2.916073E-1,9.990157E-1,7.9E-1,2.910555E-1,2.3665588E-1,7.8018E1,1.5889704E-1,-2.726612E-1],"split_indices":[159,0,159,13,0,0,97,0,0],"split_type":[0,0,0,0,0,0,0,0,0],"sum_hessian":[6.034892E1,2.7830809E1,3.251811E1,6.1715355E0,2.6346575E1,3.2930026E0,2.878533E0,1.0897344E0,1.7887985E0],"tree_param":{"num_deleted":"0","num_feature":"160","num_nodes":"9","size_leaf_vector":"1"}},{"base_weights":[1.0564296E-2,-2.877654E-1,8.185259E-1,2.4795672E-1,2.8704715E-1,2.0155405E-1,-1.3249058E-1],"categories":[2,3],"categories_nodes":[3],"categories_segments":[0],"categories_sizes":[2],"default_left":[0,0,0,1,0,0,0],"id":15,"left_children":[1,-1,3,5,-1,-1,-1],"loss_changes":[3.7685635E1,0E0,1.8325214E0,2.1871457E0,0E0,0E0,0E0],"parents":[2147483647,0,0,2,2,3,3],"right_children":[2,-1,4,6,-1,-1,-1],"split_conditions":[3.4919795E-2,-2.877654E-1,9.990157E-1,NaN,2.8704715E-1,2.0155405E-1,-1.3249058E-1],"split_indices":[159,0,159,151,0,0,0],"split_type":[0,0,0,1,0,0,0],"sum_hessian":[4.6094173E1,2.0864124E1,2.5230051E1,5.4671984E0,1.9762854E1,3.401834E0,2.0653641E0],"tree_param":{"num_deleted":"0","num_feature":"160","num_nodes":"7","size_leaf_vector":"1"}},{"base_weights":[1.1928778E-2,-2.8312045E-1,7.737151E-1,2.0770739E-1,2.8220198E-1,-3.4786007E-1,2.173795E-1,1.5386266E-1,-2.672637E-1],"categories":[1,2,3],"categories_nodes":[5],"categories_segments":[0],"categories_sizes":[3],"default_left":[0,0,0,0,0,1,0,0,0],"id":16,"left_children":[1,-1,3,5,-1,7,-1,-1,-1],"loss_changes":[2.7379692E1,0E0,1.7814159E0,1.9889383E0,0E0,2.1352043E0,0E0,0E0,0E0],"parents":[2147483647,0,0,2,2,3,3,5,5],"right_children":[2,-1,4,6,-1,8,-1,-1,-1],"split_conditions":[3.4919795E-2,-2.8312045E-1,9.990157E-1,5.3E1,2.8220198E-1,NaN,2.173795E-1,1.5386266E-1,-2.672637E-1],"split_indices":[159,0,159,62,0,151,0,0,0],"split_type":[0,0,0,0,0,1,0,0,0],"sum_hessian":[3.5605896E1,1.568729E1,1.9918606E1,5.04831E0,1.4870296E1,2.5907357E0,2.4575741E0,1.0236561E0,1.5670795E0],"tree_param":{"num_deleted":"0","num_feature":"160","num_nodes":"9","size_leaf_vector":"1"}},{"base_weights":[1.5487744E-2,-2.774506E-1,7.377327E-1,1.9220702E-1,2.762978E-1,2.0473756E-1,-3.0190057E-1,-2.2790733E-1,1.0190125E-1],"categories":[],"categories_nodes":[],"categories_segments":[],"categories_sizes":[],"default_left":[0,0,0,0,0,0,0,0,0],"id":17,"left_children":[1,-1,3,5,-1,-1,7,-1,-1],"loss_changes":[2.006497E1,0E0,1.4923286E0,1.5292785E0,0E0,0E0,1.2607262E0,0E0,0E0],"parents":[2147483647,0,0,2,2,3,3,6,6],"right_children":[2,-1,4,6,-1,-1,8,-1,-1],"split_conditions":[3.4919795E-2,-2.774506E-1,9.990157E-1,7.9E-1,2.762978E-1,2.0473756E-1,1.9E1,-2.2790733E-1,1.0190125E-1],"split_indices":[159,0,159,13,0,0,10,0,0],"split_type":[0,0,0,0,0,0,0,0,0],"sum_hessian":[2.7539896E1,1.1841898E1,1.5697997E1,4.462601E0,1.1235395E1,2.048698E0,2.4139035E0,1.3012747E0,1.1126288E0],"tree_param":{"num_deleted":"0","num_feature":"160","num_nodes":"9","size_leaf_vector":"1"}},{"base_weights":[1.807561E-2,-2.7055654E-1,6.9396853E-1,-2.2995401E-2,8.13185E-1,2.6828095E-1,4.063851E-1,-3.2990284E-2,1.9189093E-1],"categories":[2],"categories_nodes":[4],"categories_segments":[0],"categories_sizes":[1],"default_left":[0,0,0,0,1,0,0,0,0],"id":18,"left_children":[1,-1,3,-1,5,-1,7,-1,-1],"loss_changes":[1.4646632E1,0E0,1.3084741E0,0E0,2.689743E-2,0E0,5.279576E-1,0E0,0E0],"parents":[2147483647,0,0,2,2,4,4,6,6],"right_children":[2,-1,4,-1,6,-1,8,-1,-1],"split_conditions":[3.4919795E-2,-2.7055654E-1,2.3327518E1,-2.2995401E-2,NaN,2.6828095E-1,9.992242E-1,-3.2990284E-2,1.9189093E-1],"split_indices":[159,0,70,0,27,0,159,0,0],"split_type":[0,0,0,0,1,0,0,0,0],"sum_hessian":[2.1549604E1,8.985493E0,1.2564111E1,1.7311202E0,1.0832991E1,8.033433E0,2.7995572E0,1.0355922E0,1.7639651E0],"tree_param":{"num_deleted":"0","num_feature":"160","num_nodes":"9","size_leaf_vector":"1"}},{"base_weights":[2.2543196E-2,-2.622895E-1,6.383954E-1,6.617987E-2,2.6289427E-1,-3.6083248E-1,1.7579453E-1,-1.3995208E-1,-2.1667952E-2],"categories":[],"categories_nodes":[],"categories_segments":[],"categories_sizes":[],"default_left":[0,0,0,0,0,0,0,0,0],"id":19,"left_children":[1,-1,3,5,-1,7,-1,-1,-1],"loss_changes":[1.0652566E1,0E0,1.495862E0,1.1955342E0,0E0,5.9415817E-2,0E0,0E0,0E0],"parents":[2147483647,0,0,2,2,3,3,5,5],"right_children":[2,-1,4,6,-1,8,-1,-1,-1],"split_conditions":[3.4919795E-2,-2.622895E-1,9.990157E-1,5.3E1,2.6289427E-1,2.18E2,1.7579453E-1,-1.3995208E-1,-2.1667952E-2],"split_indices":[159,0,159,62,0,56,0,0,0],"split_type":[0,0,0,0,0,0,0,0,0],"sum_hessian":[1.7276335E1,6.8627396E0,1.0413595E1,3.433614E0,6.979981E0,2.0529566E0,1.3806576E0,1.0515219E0,1.0014346E0],"tree_param":{"num_deleted":"0","num_feature":"160","num_nodes":"9","size_leaf_vector":"1"}},{"base_weights":[2.2183452E-2,-2.5258547E-1,5.833836E-1,5.6866236E-2,2.5327507E-1,1.7031218E-1,-1.06201634E-1],"categories":[],"categories_nodes":[],"categories_segments":[],"categories_sizes":[],"default_left":[0,0,0,0,0,0,0],"id":20,"left_children":[1,-1,3,5,-1,-1,-1],"loss_changes":[7.726396E0,0E0,1.2754855E0,1.0960819E0,0E0,0E0,0E0],"parents":[2147483647,0,0,2,2,3,3],"right_children":[2,-1,4,6,-1,-1,-1],"split_conditions":[3.4919795E-2,-2.5258547E-1,9.990157E-1,7.9E-1,2.5327507E-1,1.7031218E-1,-1.06201634E-1],"split_indices":[159,0,159,13,0,0,0],"split_type":[0,0,0,0,0,0,0],"sum_hessian":[1.3919425E1,5.283552E0,8.635873E0,3.2646627E0,5.37121E0,1.2851313E0,1.9795313E0],"tree_param":{"num_deleted":"0","num_feature":"160","num_nodes":"7","size_leaf_vector":"1"}},{"base_weights":[2.5782725E-2,-2.4149701E-1,5.346241E-1,-6.1804373E-2,7.0212257E-1,2.3266388E-1,4.066007E-2],"categories":[],"categories_nodes":[],"categories_segments":[],"categories_sizes":[],"default_left":[0,0,0,0,0,0,0],"id":21,"left_children":[1,-1,3,-1,5,-1,-1],"loss_changes":[5.6694255E0,0E0,1.1726665E0,0E0,1.8547845E-1,0E0,0E0],"parents":[2147483647,0,0,2,2,4,4],"right_children":[2,-1,4,-1,6,-1,-1],"split_conditions":[3.4919795E-2,-2.4149701E-1,2.3327518E1,-6.1804373E-2,1.034E2,2.3266388E-1,4.066007E-2],"split_indices":[159,0,70,0,69,0,0],"split_type":[0,0,0,0,0,0,0],"sum_hessian":[1.1393347E1,4.106599E0,7.286748E0,1.3015684E0,5.9851794E0,4.972057E0,1.0131226E0],"tree_param":{"num_deleted":"0","num_feature":"160","num_nodes":"7","size_leaf_vector":"1"}},{"base_weights":[1.91226E-2,-4.890853E-1,2.3503481E-1,-2.292089E-1,-4.6492513E-2,1.0583535E-1,-1.5561035E-1],"categories":[0,1],"categories_nodes":[4],"categories_segments":[0],"categories_sizes":[2],"default_left":[0,0,0,0,1,0,0],"id":22,"left_children":[1,3,-1,-1,5,-1,-1],"loss_changes":[4.484717E0,8.111625E-1,0E0,0E0,8.8641584E-1,0E0,0E0],"parents":[2147483647,0,0,1,1,4,4],"right_children":[2,4,-1,-1,6,-1,-1],"split_conditions":[9.990157E-1,3.4919795E-2,2.3503481E-1,-2.292089E-1,NaN,1.0583535E-1,-1.5561035E-1],"split_indices":[159,159,0,0,1,0,0],"split_type":[0,0,0,0,1,0,0],"sum_hessian":[9.559096E0,5.957806E0,3.6012907E0,3.2269342E0,2.730872E0,1.6167397E0,1.1141322E0],"tree_param":{"num_deleted":"0","num_feature":"160","num_nodes":"7","size_leaf_vector":"1"}},{"base_weights":[1.29027525E-2,-4.4558927E-1,2.2221608E-1,-6.388342E-1,2.3965355E-2,-3.5775203E-2,-2.289017E-1],"categories":[],"categories_nodes":[],"categories_segments":[],"categories_sizes":[],"default_left":[0,0,0,0,0,0,0],"id":23,"left_children":[1,3,-1,5,-1,-1,-1],"loss_changes":[3.3283389E0,6.741967E-1,0E0,2.0565772E-1,0E0,0E0,0E0],"parents":[2147483647,0,0,1,1,3,3],"right_children":[2,4,-1,6,-1,-1,-1],"split_conditions":[9.990157E-1,1E0,2.2221608E-1,1.4E1,2.3965355E-2,-3.5775203E-2,-2.289017E-1],"split_indices":[159,64,0,10,0,0,0],"split_type":[0,0,0,0,0,0,0],"sum_hessian":[7.985002E0,5.136815E0,2.8481872E0,3.5979323E0,1.5388825E0,1.0721198E0,2.5258126E0],"tree_param":{"num_deleted":"0","num_feature":"160","num_nodes":"7","size_leaf_vector":"1"}},{"base_weights":[1.1249542E-2,-2.0879729E-1,4.0907994E-1,-7.364516E-2,6.041888E-1,2.1849E-1,3.192304E-2],"categories":[2],"categories_nodes":[4],"categories_segments":[0],"categories_sizes":[1],"default_left":[0,0,0,0,1,0,0],"id":24,"left_children":[1,-1,3,-1,5,-1,-1],"loss_changes":[2.5628579E0,0E0,8.905455E-1,0E0,2.1695232E-1,0E0,0E0],"parents":[2147483647,0,0,2,2,4,4],"right_children":[2,-1,4,-1,6,-1,-1],"split_conditions":[3.4919795E-2,-2.0879729E-1,2.3327518E1,-7.364516E-2,NaN,2.1849E-1,3.192304E-2],"split_indices":[159,0,70,0,27,0,0],"split_type":[0,0,0,0,1,0,0],"sum_hessian":[7.0968423E0,2.2850833E0,4.811759E0,1.0456284E0,3.7661307E0,2.6438415E0,1.1222892E0],"tree_param":{"num_deleted":"0","num_feature":"160","num_nodes":"7","size_leaf_vector":"1"}},{"base_weights":[6.2439884E-3,-3.912886E-1,2.0157908E-1,3.4852877E-2,-5.535265E-1,-6.6770897E-3,-2.3124342E-1],"categories":[],"categories_nodes":[],"categories_segments":[],"categories_sizes":[],"default_left":[0,0,0,0,0,0,0],"id":25,"left_children":[1,3,-1,-1,5,-1,-1],"loss_changes":[2.1571486E0,4.8531133E-1,0E0,0E0,4.501673E-1,0E0,0E0],"parents":[2147483647,0,0,1,1,4,4],"right_children":[2,4,-1,-1,6,-1,-1],"split_conditions":[9.990157E-1,6.6E-1,2.0157908E-1,3.4852877E-2,2E0,-6.6770897E-3,-2.3124342E-1],"split_indices":[159,13,0,0,139,0,0],"split_type":[0,0,0,0,0,0,0],"sum_hessian":[6.1579785E0,4.113621E0,2.0443575E0,1.0653191E0,3.048302E0,1.2048445E0,1.8434576E0],"tree_param":{"num_deleted":"0","num_feature":"160","num_nodes":"7","size_leaf_vector":"1"}},{"base_weights":[5.134204E-3,-3.4086707E-1,1.8779367E-1,-1.8632962E-1,-2.851599E-4,-8.429569E-2,8.234805E-2],"categories":[],"categories_nodes":[],"categories_segments":[],"categories_sizes":[],"default_left":[0,0,0,0,0,0,0],"id":26,"left_children":[1,3,-1,-1,5,-1,-1],"loss_changes":[1.6053079E0,4.587363E-1,0E0,0E0,3.217018E-1,0E0,0E0],"parents":[2147483647,0,0,1,1,4,4],"right_children":[2,4,-1,-1,6,-1,-1],"split_conditions":[9.990157E-1,3.4919795E-2,1.8779367E-1,-1.8632962E-1,3E1,-8.429569E-2,8.234805E-2],"split_indices":[159,159,0,0,0,0,0],"split_type":[0,0,0,0,0,0,0],"sum_hessian":[5.4797378E0,3.8083045E0,1.6714334E0,1.6374043E0,2.1709E0,1.0627042E0,1.1081959E0],"tree_param":{"num_deleted":"0","num_feature":"160","num_nodes":"7","size_leaf_vector":"1"}},{"base_weights":[4.487559E-3,-3.047698E-1,1.743134E-1,-1.6146117E-1,1.5584583E-2],"categories":[],"categories_nodes":[],"categories_segments":[],"categories_sizes":[],"default_left":[0,0,0,0,0],"id":27,"left_children":[1,3,-1,-1,-1],"loss_changes":[1.2197125E0,3.9950436E-1,0E0,0E0,0E0],"parents":[2147483647,0,0,1,1],"right_children":[2,4,-1,-1,-1],"split_conditions":[9.990157E-1,6.3E1,1.743134E-1,-1.6146117E-1,1.5584583E-2],"split_indices":[159,120,0,0,0],"split_type":[0,0,0,0,0],"sum_hessian":[4.8474545E0,3.461923E0,1.3855317E0,1.7850406E0,1.6768823E0],"tree_param":{"num_deleted":"0","num_feature":"160","num_nodes":"5","size_leaf_vector":"1"}},{"base_weights":[9.8740375E-3,-1.6599208E-1,3.0554754E-1,1.6615447E-1,-2.4855737E-2],"categories":[3],"categories_nodes":[2],"categories_segments":[0],"categories_sizes":[1],"default_left":[0,0,1,0,0],"id":28,"left_children":[1,-1,3,-1,-1],"loss_changes":[1.0793812E0,0E0,4.5373365E-1,0E0,0E0],"parents":[2147483647,0,0,2,2],"right_children":[2,-1,4,-1,-1],"split_conditions":[3.4919795E-2,-1.6599208E-1,NaN,1.6615447E-1,-2.4855737E-2],"split_indices":[159,0,100,0,0],"split_type":[0,0,1,0,0],"sum_hessian":[4.466805E0,1.237791E0,3.2290137E0,1.7099099E0,1.5191039E0],"tree_param":{"num_deleted":"0","num_feature":"160","num_nodes":"5","size_leaf_vector":"1"}},{"base_weights":[3.2914744E-3,-2.6217496E-1,1.546388E-1,2.1699853E-2,-1.3446951E-1],"categories":[],"categories_nodes":[],"categories_segments":[],"categories_sizes":[],"default_left":[0,0,0,0,0],"id":29,"left_children":[1,3,-1,-1,-1],"loss_changes":[8.225693E-1,2.8092515E-1,0E0,0E0,0E0],"parents":[2147483647,0,0,1,1],"right_children":[2,4,-1,-1,-1],"split_conditions":[9.990157E-1,3E0,1.546388E-1,2.1699853E-2,-1.3446951E-1],"split_indices":[159,139,0,0,0],"split_type":[0,0,0,0,0],"sum_hessian":[4.055947E0,2.9928274E0,1.0631193E0,1.288139E0,1.7046883E0],"tree_param":{"num_deleted":"0","num_feature":"160","num_nodes":"5","size_leaf_vector":"1"}},{"base_weights":[1.245302E-2,2.4008603E-1,-1.0774193E-1,-1.4423767E-2,1.337474E-1],"categories":[],"categories_nodes":[],"categories_segments":[],"categories_sizes":[],"default_left":[0,0,0,0,0],"id":30,"left_children":[1,3,-1,-1,-1],"loss_changes":[4.9359423E-1,2.3402782E-1,0E0,0E0,0E0],"parents":[2147483647,0,0,1,1],"right_children":[2,4,-1,-1,-1],"split_conditions":[7.1E1,5.9E1,-1.0774193E-1,-1.4423767E-2,1.337474E-1],"split_indices":[0,120,0,0,0],"split_type":[0,0,0,0,0],"sum_hessian":[3.8159983E0,2.5858436E0,1.2301549E0,1.3963593E0,1.1894841E0],"tree_param":{"num_deleted":"0","num_feature":"160","num_nodes":"5","size_leaf_vector":"1"}},{"base_weights":[1.2611852E-2,2.104097E-1,-9.2713386E-2,1.1118124E-1,-2.453767E-2],"categories":[3],"categories_nodes":[1],"categories_segments":[0],"categories_sizes":[1],"default_left":[0,1,0,0,0],"id":31,"left_children":[1,3,-1,-1,-1],"loss_changes":[3.604271E-1,1.9273907E-1,0E0,0E0,0E0],"parents":[2147483647,0,0,1,1],"right_children":[2,4,-1,-1,-1],"split_conditions":[7.1E1,NaN,-9.2713386E-2,1.1118124E-1,-2.453767E-2],"split_indices":[0,100,0,0,0],"split_type":[0,1,0,0,0],"sum_hessian":[3.6429956E0,2.4699762E0,1.1730194E0,1.4220489E0,1.0479274E0],"tree_param":{"num_deleted":"0","num_feature":"160","num_nodes":"5","size_leaf_vector":"1"}},{"base_weights":[8.535045E-3,9.017295E-2,-1.9247867E-1,2.324297E-2,-1.0825286E-1],"categories":[],"categories_nodes":[],"categories_segments":[],"categories_sizes":[],"default_left":[0,0,0,0,0],"id":32,"left_children":[1,-1,3,-1,-1],"loss_changes":[3.2265472E-1,0E0,1.7709813E-1,0E0,0E0],"parents":[2147483647,0,0,2,2],"right_children":[2,-1,4,-1,-1],"split_conditions":[7.9E-1,9.017295E-2,1.000001E1,2.324297E-2,-1.0825286E-1],"split_indices":[13,0,139,0,0],"split_type":[0,0,0,0,0],"sum_hessian":[3.5107431E0,1.2293651E0,2.281378E0,1.0836617E0,1.1977164E0],"tree_param":{"num_deleted":"0","num_feature":"160","num_nodes":"5","size_leaf_vector":"1"}},{"base_weights":[7.363117E-3,1.7883387E-1,-8.058348E-2,9.4554454E-2,-1.8865637E-2],"categories":[3],"categories_nodes":[1],"categories_segments":[0],"categories_sizes":[1],"default_left":[0,1,0,0,0],"id":33,"left_children":[1,3,-1,-1,-1],"loss_changes":[2.567876E-1,1.2927768E-1,0E0,0E0,0E0],"parents":[2147483647,0,0,1,1],"right_children":[2,4,-1,-1,-1],"split_conditions":[7.1E1,NaN,-8.058348E-2,9.4554454E-2,-1.8865637E-2],"split_indices":[0,100,0,0,0],"split_type":[0,1,0,0,0],"sum_hessian":[3.411321E0,2.3211303E0,1.0901908E0,1.2897183E0,1.031412E0],"tree_param":{"num_deleted":"0","num_feature":"160","num_nodes":"5","size_leaf_vector":"1"}},{"base_weights":[4.5958697E-3,8.490487E-2,-1.6544078E-1,-1.0332552E-1,2.1526733E-2],"categories":[],"categories_nodes":[],"categories_segments":[],"categories_sizes":[],"default_left":[0,0,1,0,0],"id":34,"left_children":[1,-1,3,-1,-1],"loss_changes":[2.5121582E-1,0E0,1.6529727E-1,0E0,0E0],"parents":[2147483647,0,0,2,2],"right_children":[2,-1,4,-1,-1],"split_conditions":[7.62E1,8.490487E-2,2.81E1,-1.0332552E-1,2.1526733E-2],"split_indices":[133,0,134,0,0],"split_type":[0,0,0,0,0],"sum_hessian":[3.31741E0,1.0058973E0,2.3115127E0,1.059799E0,1.2517138E0],"tree_param":{"num_deleted":"0","num_feature":"160","num_nodes":"5","size_leaf_vector":"1"}},{"base_weights":[4.0240893E-3,7.629735E-2,-1.6867802E-1,1.3366484E-2,-8.795409E-2],"categories":[],"categories_nodes":[],"categories_segments":[],"categories_sizes":[],"default_left":[0,0,0,0,0],"id":35,"left_children":[1,-1,3,-1,-1],"loss_changes":[2.2582406E-1,0E0,9.5500186E-2,0E0,0E0],"parents":[2147483647,0,0,2,2],"right_children":[2,-1,4,-1,-1],"split_conditions":[7.9E-1,7.629735E-2,1.000001E1,1.3366484E-2,-8.795409E-2],"split_indices":[13,0,139,0,0],"split_type":[0,0,0,0,0],"sum_hessian":[3.2316935E0,1.1264659E0,2.1052277E0,1.0127844E0,1.0924432E0],"tree_param":{"num_deleted":"0","num_feature":"160","num_nodes":"5","size_leaf_vector":"1"}},{"base_weights":[3.3432455E-3,6.553578E-2,-1.4376402E-1,-7.950344E-2,1.3716792E-2],"categories":[],"categories_nodes":[],"categories_segments":[],"categories_sizes":[],"default_left":[0,0,0,0,0],"id":36,"left_children":[1,-1,3,-1,-1],"loss_changes":[1.6324215E-1,0E0,8.281709E-2,0E0,0E0],"parents":[2147483647,0,0,2,2],"right_children":[2,-1,4,-1,-1],"split_conditions":[7.9E-1,6.553578E-2,1.4E1,-7.950344E-2,1.3716792E-2],"split_indices":[13,0,90,0,0],"split_type":[0,0,0,0,0],"sum_hessian":[3.166222E0,1.0889312E0,2.0772908E0,1.0236857E0,1.0536051E0],"tree_param":{"num_deleted":"0","num_feature":"160","num_nodes":"5","size_leaf_vector":"1"}},{"base_weights":[2.35035E-3,1.4514531E-1,-6.2171407E-2,7.2003245E-2,-6.52308E-3],"categories":[],"categories_nodes":[],"categories_segments":[],"categories_sizes":[],"default_left":[0,0,0,0,0],"id":37,"left_children":[1,3,-1,-1,-1],"loss_changes":[1.5329903E-1,5.329874E-2,0E0,0E0,0E0],"parents":[2147483647,0,0,1,1],"right_children":[2,4,-1,-1,-1],"split_conditions":[6E1,5.336071E0,-6.2171407E-2,7.2003245E-2,-6.52308E-3],"split_indices":[0,146,0,0,0],"split_type":[0,0,0,0,0],"sum_hessian":[3.1171718E0,2.0368898E0,1.080282E0,1.0193236E0,1.0175662E0],"tree_param":{"num_deleted":"0","num_feature":"160","num_nodes":"5","size_leaf_vector":"1"}},{"base_weights":[2.6374396E-3,6.044915E-2,-4.3132976E-2],"categories":[],"categories_nodes":[],"categories_segments":[],"categories_sizes":[],"default_left":[0,0,0],"id":38,"left_children":[1,-1,-1],"loss_changes":[1.472788E-1,0E0,0E0],"parents":[2147483647,0,0],"right_children":[2,-1,-1],"split_conditions":[7.8472E1,6.044915E-2,-4.3132976E-2],"split_indices":[97,0,0],"split_type":[0,0,0],"sum_hessian":[3.0633616E0,1.1394899E0,1.9238718E0],"tree_param":{"num_deleted":"0","num_feature":"160","num_nodes":"3","size_leaf_vector":"1"}},{"base_weights":[6.3054045E-3,4.3239735E-2,-5.683924E-2],"categories":[0,1,2],"categories_nodes":[0],"categories_segments":[0],"categories_sizes":[3],"default_left":[1,0,0],"id":39,"left_children":[1,-1,-1],"loss_changes":[1.362071E-1,0E0,0E0],"parents":[2147483647,0,0],"right_children":[2,-1,-1],"split_conditions":[NaN,4.3239735E-2,-5.683924E-2],"split_indices":[1,0,0],"split_type":[1,0,0],"sum_hessian":[3.0359428E0,1.9364172E0,1.0995256E0],"tree_param":{"num_deleted":"0","num_feature":"160","num_nodes":"3","size_leaf_vector":"1"}},{"base_weights":[1.0992022E-3,3.892927E-2,-5.532923E-2],"categories":[],"categories_nodes":[],"categories_segments":[],"categories_sizes":[],"default_left":[0,0,0],"id":40,"left_children":[1,-1,-1],"loss_changes":[1.1955792E-1,0E0,0E0],"parents":[2147483647,0,0],"right_children":[2,-1,-1],"split_conditions":[6E1,3.892927E-2,-5.532923E-2],"split_indices":[0,0,0],"split_type":[0,0,0],"sum_hessian":[3.0058873E0,1.9524432E0,1.053444E0],"tree_param":{"num_deleted":"0","num_feature":"160","num_nodes":"3","size_leaf_vector":"1"}},{"base_weights":[-3.3640845E-3,5.6919485E-2,-4.1058194E-2],"categories":[],"categories_nodes":[],"categories_segments":[],"categories_sizes":[],"default_left":[0,0,0],"id":41,"left_children":[1,-1,-1],"loss_changes":[1.2826517E-1,0E0,0E0],"parents":[2147483647,0,0],"right_children":[2,-1,-1],"split_conditions":[7.9E-1,5.6919485E-2,-4.1058194E-2],"split_indices":[13,0,0],"split_type":[0,0,0],"sum_hessian":[2.9684973E0,1.0412039E0,1.9272934E0],"tree_param":{"num_deleted":"0","num_feature":"160","num_nodes":"3","size_leaf_vector":"1"}},{"base_weights":[1.7793985E-3,-4.2971108E-2,4.757551E-2],"categories":[0,1],"categories_nodes":[0],"categories_segments":[0],"categories_sizes":[2],"default_left":[1,0,0],"id":42,"left_children":[1,-1,-1],"loss_changes":[1.1241667E-1,0E0,0E0],"parents":[2147483647,0,0],"right_children":[2,-1,-1],"split_conditions":[NaN,-4.2971108E-2,4.757551E-2],"split_indices":[151,0,0],"split_type":[1,0,0],"sum_hessian":[2.944759E0,1.5748464E0,1.3699125E0],"tree_param":{"num_deleted":"0","num_feature":"160","num_nodes":"3","size_leaf_vector":"1"}},{"base_weights":[2.5115332E-3,3.578205E-2,-5.061571E-2],"categories":[],"categories_nodes":[],"categories_segments":[],"categories_sizes":[],"default_left":[0,0,0],"id":43,"left_children":[1,-1,-1],"loss_changes":[9.8541714E-2,0E0,0E0],"parents":[2147483647,0,0],"right_children":[2,-1,-1],"split_conditions":[6E1,3.578205E-2,-5.061571E-2],"split_indices":[0,0,0],"split_type":[0,0,0],"sum_hessian":[2.9222307E0,1.9178702E0,1.0043606E0],"tree_param":{"num_deleted":"0","num_feature":"160","num_nodes":"3","size_leaf_vector":"1"}},{"base_weights":[-2.0412675E-3,5.056917E-2,-3.7921242E-2],"categories":[],"categories_nodes":[],"categories_segments":[],"categories_sizes":[],"default_left":[0,0,0],"id":44,"left_children":[1,-1,-1],"loss_changes":[1.038545E-1,0E0,0E0],"parents":[2147483647,0,0],"right_children":[2,-1,-1],"split_conditions":[7.8472E1,5.056917E-2,-3.7921242E-2],"split_indices":[97,0,0],"split_type":[0,0,0],"sum_hessian":[2.890632E0,1.0688828E0,1.821749E0],"tree_param":{"num_deleted":"0","num_feature":"160","num_nodes":"3","size_leaf_vector":"1"}},{"base_weights":[1.921955E-3,4.8650723E-2,-3.3398196E-2],"categories":[],"categories_nodes":[],"categories_segments":[],"categories_sizes":[],"default_left":[0,0,0],"id":45,"left_children":[1,-1,-1],"loss_changes":[8.831738E-2,0E0,0E0],"parents":[2147483647,0,0],"right_children":[2,-1,-1],"split_conditions":[7.9E-1,4.8650723E-2,-3.3398196E-2],"split_indices":[13,0,0],"split_type":[0,0,0],"sum_hessian":[2.871724E0,1.0102541E0,1.8614697E0],"tree_param":{"num_deleted":"0","num_feature":"160","num_nodes":"3","size_leaf_vector":"1"}},{"base_weights":[5.384585E-3,-3.2688748E-2,4.4860534E-2],"categories":[],"categories_nodes":[],"categories_segments":[],"categories_sizes":[],"default_left":[1,0,0],"id":46,"left_children":[1,-1,-1],"loss_changes":[7.9844765E-2,0E0,0E0],"parents":[2147483647,0,0],"right_children":[2,-1,-1],"split_conditions":[1.727E2,-3.2688748E-2,4.4860534E-2],"split_indices":[132,0,0],"split_type":[0,0,0],"sum_hessian":[2.8555071E0,1.7284913E0,1.1270157E0],"tree_param":{"num_deleted":"0","num_feature":"160","num_nodes":"3","size_leaf_vector":"1"}},{"base_weights":[7.0451177E-3,-3.289952E-2,4.4613216E-2],"categories":[],"categories_nodes":[],"categories_segments":[],"categories_sizes":[],"default_left":[0,0,0],"id":47,"left_children":[1,-1,-1],"loss_changes":[7.97182E-2,0E0,0E0],"parents":[2147483647,0,0],"right_children":[2,-1,-1],"split_conditions":[1.59E1,-3.289952E-2,4.4613216E-2],"split_indices":[90,0,0],"split_type":[0,0,0],"sum_hessian":[2.8351593E0,1.6783502E0,1.156809E0],"tree_param":{"num_deleted":"0","num_feature":"160","num_nodes":"3","size_leaf_vector":"1"}},{"base_weights":[8.105903E-3,3.3629682E-2,-4.158792E-2],"categories":[0,1,2],"categories_nodes":[0],"categories_segments":[0],"categories_sizes":[3],"default_left":[1,0,0],"id":48,"left_children":[1,-1,-1],"loss_changes":[7.38023E-2,0E0,0E0],"parents":[2147483647,0,0],"right_children":[2,-1,-1],"split_conditions":[NaN,3.3629682E-2,-4.158792E-2],"split_indices":[1,0,0],"split_type":[1,0,0],"sum_hessian":[2.8181996E0,1.787431E0,1.0307685E0],"tree_param":{"num_deleted":"0","num_feature":"160","num_nodes":"3","size_leaf_vector":"1"}},{"base_weights":[3.6276977E-3,-3.2737717E-2,4.153852E-2],"categories":[],"categories_nodes":[],"categories_segments":[],"categories_sizes":[],"default_left":[0,0,0],"id":49,"left_children":[1,-1,-1],"loss_changes":[7.290131E-2,0E0,0E0],"parents":[2147483647,0,0],"right_children":[2,-1,-1],"split_conditions":[6.3E1,-3.2737717E-2,4.153852E-2],"split_indices":[120,0,0],"split_type":[0,0,0],"sum_hessian":[2.8013268E0,1.6294142E0,1.1719126E0],"tree_param":{"num_deleted":"0","num_feature":"160","num_nodes":"3","size_leaf_vector":"1"}},{"base_weights":[4.9315956E-3,3.343486E-2,-4.3504234E-2],"categories":[],"categories_nodes":[],"categories_segments":[],"categories_sizes":[],"default_left":[0,0,0],"id":50,"left_children":[1,-1,-1],"loss_changes":[7.6616175E-2,0E0,0E0],"parents":[2147483647,0,0],"right_children":[2,-1,-1],"split_conditions":[5.8E1,3.343486E-2,-4.3504234E-2],"split_indices":[0,0,0],"split_type":[0,0,0],"sum_hessian":[2.785046E0,1.778427E0,1.0066191E0],"tree_param":{"num_deleted":"0","num_feature":"160","num_nodes":"3","size_leaf_vector":"1"}},{"base_weights":[8.1029674E-4,4.3291114E-2,-3.186374E-2],"categories":[],"categories_nodes":[],"categories_segments":[],"categories_sizes":[],"default_left":[0,0,0],"id":51,"left_children":[1,-1,-1],"loss_changes":[7.307467E-2,0E0,0E0],"parents":[2147483647,0,0],"right_children":[2,-1,-1],"split_conditions":[7.8472E1,4.3291114E-2,-3.186374E-2],"split_indices":[97,0,0],"split_type":[0,0,0],"sum_hessian":[2.760343E0,1.0304269E0,1.7299162E0],"tree_param":{"num_deleted":"0","num_feature":"160","num_nodes":"3","size_leaf_vector":"1"}},{"base_weights":[3.6753614E-3,-3.0981142E-2,4.169366E-2],"categories":[],"categories_nodes":[],"categories_segments":[],"categories_sizes":[],"default_left":[1,0,0],"id":52,"left_children":[1,-1,-1],"loss_changes":[6.8571255E-2,0E0,0E0],"parents":[2147483647,0,0],"right_children":[2,-1,-1],"split_conditions":[1.727E2,-3.0981142E-2,4.169366E-2],"split_indices":[132,0,0],"split_type":[0,0,0],"sum_hessian":[2.746945E0,1.6664827E0,1.0804623E0],"tree_param":{"num_deleted":"0","num_feature":"160","num_nodes":"3","size_leaf_vector":"1"}},{"base_weights":[5.522245E-3,-3.260131E-2,3.7879217E-2],"categories":[],"categories_nodes":[],"categories_segments":[],"categories_sizes":[],"default_left":[0,0,0],"id":53,"left_children":[1,-1,-1],"loss_changes":[6.514179E-2,0E0,0E0],"parents":[2147483647,0,0],"right_children":[2,-1,-1],"split_conditions":[3E0,-3.260131E-2,3.7879217E-2],"split_indices":[66,0,0],"split_type":[0,0,0],"sum_hessian":[2.7293954E0,1.4541161E0,1.2752793E0],"tree_param":{"num_deleted":"0","num_feature":"160","num_nodes":"3","size_leaf_vector":"1"}},{"base_weights":[5.344761E-3,3.516285E-2,-3.0680189E-2],"categories":[0,2,3],"categories_nodes":[0],"categories_segments":[0],"categories_sizes":[3],"default_left":[1,0,0],"id":54,"left_children":[1,-1,-1],"loss_changes":[5.669296E-2,0E0,0E0],"parents":[2147483647,0,0],"right_children":[2,-1,-1],"split_conditions":[NaN,3.516285E-2,-3.0680189E-2],"split_indices":[12,0,0],"split_type":[1,0,0],"sum_hessian":[2.7137632E0,1.2868613E0,1.426902E0],"tree_param":{"num_deleted":"0","num_feature":"160","num_nodes":"3","size_leaf_vector":"1"}},{"base_weights":[5.010165E-3,-2.787671E-2,3.6881294E-2],"categories":[],"categories_nodes":[],"categories_segments":[],"categories_sizes":[],"default_left":[0,0,0],"id":55,"left_children":[1,-1,-1],"loss_changes":[5.4148134E-2,0E0,0E0],"parents":[2147483647,0,0],"right_children":[2,-1,-1],"split_conditions":[1.59E1,-2.787671E-2,3.6881294E-2],"split_indices":[90,0,0],"split_type":[0,0,0],"sum_hessian":[2.6994295E0,1.5905772E0,1.1088523E0],"tree_param":{"num_deleted":"0","num_feature":"160","num_nodes":"3","size_leaf_vector":"1"}},{"base_weights":[6.0057277E-3,-2.6356587E-2,3.6838442E-2],"categories":[],"categories_nodes":[],"categories_segments":[],"categories_sizes":[],"default_left":[1,0,0],"id":56,"left_children":[1,-1,-1],"loss_changes":[5.1213905E-2,0E0,0E0],"parents":[2147483647,0,0],"right_children":[2,-1,-1],"split_conditions":[1.727E2,-2.6356587E-2,3.6838442E-2],"split_indices":[132,0,0],"split_type":[0,0,0],"sum_hessian":[2.6878257E0,1.6275448E0,1.0602809E0],"tree_param":{"num_deleted":"0","num_feature":"160","num_nodes":"3","size_leaf_vector":"1"}},{"base_weights":[7.121618E-3,3.8917296E-2,-2.6600134E-2],"categories":[],"categories_nodes":[],"categories_segments":[],"categories_sizes":[],"default_left":[0,0,0],"id":57,"left_children":[1,-1,-1],"loss_changes":[5.465274E-2,0E0,0E0],"parents":[2147483647,0,0],"right_children":[2,-1,-1],"split_conditions":[7.888E1,3.8917296E-2,-2.6600134E-2],"split_indices":[97,0,0],"split_type":[0,0,0],"sum_hessian":[2.67427E0,1.0175735E0,1.6566963E0],"tree_param":{"num_deleted":"0","num_feature":"160","num_nodes":"3","size_leaf_vector":"1"}},{"base_weights":[8.40607E-3,2.9556697E-2,-3.0726966E-2],"categories":[],"categories_nodes":[],"categories_segments":[],"categories_sizes":[],"default_left":[0,0,0],"id":58,"left_children":[1,-1,-1],"loss_changes":[4.6686664E-2,0E0,0E0],"parents":[2147483647,0,0],"right_children":[2,-1,-1],"split_conditions":[3.9E1,2.9556697E-2,-3.0726966E-2],"split_indices":[0,0,0],"split_type":[0,0,0],"sum_hessian":[2.664142E0,1.5306232E0,1.1335187E0],"tree_param":{"num_deleted":"0","num_feature":"160","num_nodes":"3","size_leaf_vector":"1"}},{"base_weights":[5.619723E-3,-2.70296E-2,3.566482E-2],"categories":[],"categories_nodes":[],"categories_segments":[],"categories_sizes":[],"default_left":[0,0,0],"id":59,"left_children":[1,-1,-1],"loss_changes":[5.0263774E-2,0E0,0E0],"parents":[2147483647,0,0],"right_children":[2,-1,-1],"split_conditions":[6.3E1,-2.70296E-2,3.566482E-2],"split_indices":[120,0,0],"split_type":[0,0,0],"sum_hessian":[2.648309E0,1.5461652E0,1.1021438E0],"tree_param":{"num_deleted":"0","num_feature":"160","num_nodes":"3","size_leaf_vector":"1"}},{"base_weights":[6.351989E-3,-2.7621396E-2,3.2940675E-2],"categories":[0,1],"categories_nodes":[0],"categories_segments":[0],"categories_sizes":[2],"default_left":[1,0,0],"id":60,"left_children":[1,-1,-1],"loss_changes":[4.714025E-2,0E0,0E0],"parents":[2147483647,0,0],"right_children":[2,-1,-1],"split_conditions":[NaN,-2.7621396E-2,3.2940675E-2],"split_indices":[151,0,0],"split_type":[1,0,0],"sum_hessian":[2.6369E0,1.407648E0,1.229252E0],"tree_param":{"num_deleted":"0","num_feature":"160","num_nodes":"3","size_leaf_vector":"1"}},{"base_weights":[5.9584896E-3,-3.0799698E-2,2.7282767E-2],"categories":[2],"categories_nodes":[0],"categories_segments":[0],"categories_sizes":[1],"default_left":[1,0,0],"id":61,"left_children":[1,-1,-1],"loss_changes":[4.2818766E-2,0E0,0E0],"parents":[2147483647,0,0],"right_children":[2,-1,-1],"split_conditions":[NaN,-3.0799698E-2,2.7282767E-2],"split_indices":[115,0,0],"split_type":[1,0,0],"sum_hessian":[2.6270096E0,1.0617957E0,1.5652139E0],"tree_param":{"num_deleted":"0","num_feature":"160","num_nodes":"3","size_leaf_vector":"1"}},{"base_weights":[3.2251016E-3,-2.7292442E-2,3.0585377E-2],"categories":[],"categories_nodes":[],"categories_segments":[],"categories_sizes":[],"default_left":[0,0,0],"id":62,"left_children":[1,-1,-1],"loss_changes":[4.287546E-2,0E0,0E0],"parents":[2147483647,0,0],"right_children":[2,-1,-1],"split_conditions":[3E0,-2.7292442E-2,3.0585377E-2],"split_indices":[66,0,0],"split_type":[0,0,0],"sum_hessian":[2.612956E0,1.3773072E0,1.235649E0],"tree_param":{"num_deleted":"0","num_feature":"160","num_nodes":"3","size_leaf_vector":"1"}},{"base_weights":[3.2061154E-3,2.617407E-2,-3.0000336E-2],"categories":[],"categories_nodes":[],"categories_segments":[],"categories_sizes":[],"default_left":[1,0,0],"id":63,"left_children":[1,-1,-1],"loss_changes":[3.997096E-2,0E0,0E0],"parents":[2147483647,0,0],"right_children":[2,-1,-1],"split_conditions":[2.14E2,2.617407E-2,-3.0000336E-2],"split_indices":[56,0,0],"split_type":[0,0,0],"sum_hessian":[2.6024392E0,1.519647E0,1.0827922E0],"tree_param":{"num_deleted":"0","num_feature":"160","num_nodes":"3","size_leaf_vector":"1"}},{"base_weights":[1.2043655E-3,-2.6315954E-2,3.0002555E-2],"categories":[2],"categories_nodes":[0],"categories_segments":[0],"categories_sizes":[1],"default_left":[1,0,0],"id":64,"left_children":[1,-1,-1],"loss_changes":[4.0334053E-2,0E0,0E0],"parents":[2147483647,0,0],"right_children":[2,-1,-1],"split_conditions":[NaN,-2.6315954E-2,3.0002555E-2],"split_indices":[15,0,0],"split_type":[1,0,0],"sum_hessian":[2.5921962E0,1.4233546E0,1.1688416E0],"tree_param":{"num_deleted":"0","num_feature":"160","num_nodes":"3","size_leaf_vector":"1"}},{"base_weights":[1.8941428E-3,-2.3910169E-2,3.1371415E-2],"categories":[],"categories_nodes":[],"categories_segments":[],"categories_sizes":[],"default_left":[1,0,0],"id":65,"left_children":[1,-1,-1],"loss_changes":[3.8355265E-2,0E0,0E0],"parents":[2147483647,0,0],"right_children":[2,-1,-1],"split_conditions":[1.727E2,-2.3910169E-2,3.1371415E-2],"split_indices":[132,0,0],"split_type":[0,0,0],"sum_hessian":[2.5833323E0,1.5641344E0,1.0191978E0],"tree_param":{"num_deleted":"0","num_feature":"160","num_nodes":"3","size_leaf_vector":"1"}},{"base_weights":[3.456736E-3,2.601721E-2,-2.8909529E-2],"categories":[],"categories_nodes":[],"categories_segments":[],"categories_sizes":[],"default_left":[0,0,0],"id":66,"left_children":[1,-1,-1],"loss_changes":[3.805688E-2,0E0,0E0],"parents":[2147483647,0,0],"right_children":[2,-1,-1],"split_conditions":[3.9E1,2.601721E-2,-2.8909529E-2],"split_indices":[0,0,0],"split_type":[0,0,0],"sum_hessian":[2.573158E0,1.4744467E0,1.0987114E0],"tree_param":{"num_deleted":"0","num_feature":"160","num_nodes":"3","size_leaf_vector":"1"}},{"base_weights":[1.624167E-3,2.496814E-2,-2.9209498E-2],"categories":[],"categories_nodes":[],"categories_segments":[],"categories_sizes":[],"default_left":[0,0,0],"id":67,"left_children":[1,-1,-1],"loss_changes":[3.6863368E-2,0E0,0E0],"parents":[2147483647,0,0],"right_children":[2,-1,-1],"split_conditions":[8.85E1,2.496814E-2,-2.9209498E-2],"split_indices":[133,0,0],"split_type":[0,0,0],"sum_hessian":[2.560367E0,1.4907107E0,1.0696564E0],"tree_param":{"num_deleted":"0","num_feature":"160","num_nodes":"3","size_leaf_vector":"1"}},{"base_weights":[-4.1153817E-5,2.6936814E-2,-2.5730835E-2],"categories":[0,2,3],"categories_nodes":[0],"categories_segments":[0],"categories_sizes":[3],"default_left":[1,0,0],"id":68,"left_children":[1,-1,-1],"loss_changes":[3.5040863E-2,0E0,0E0],"parents":[2147483647,0,0],"right_children":[2,-1,-1],"split_conditions":[NaN,2.6936814E-2,-2.5730835E-2],"split_indices":[12,0,0],"split_type":[1,0,0],"sum_hessian":[2.5501385E0,1.2221426E0,1.3279958E0],"tree_param":{"num_deleted":"0","num_feature":"160","num_nodes":"3","size_leaf_vector":"1"}},{"base_weights":[3.282916E-4,-2.985651E-2,2.3973508E-2],"categories":[0],"categories_nodes":[0],"categories_segments":[0],"categories_sizes":[1],"default_left":[1,0,0],"id":69,"left_children":[1,-1,-1],"loss_changes":[3.6091574E-2,0E0,0E0],"parents":[2147483647,0,0],"right_children":[2,-1,-1],"split_conditions":[NaN,-2.985651E-2,2.3973508E-2],"split_indices":[34,0,0],"split_type":[1,0,0],"sum_hessian":[2.5410528E0,1.0159051E0,1.5251477E0],"tree_param":{"num_deleted":"0","num_feature":"160","num_nodes":"3","size_leaf_vector":"1"}},{"base_weights":[-1.4251572E-3,2.205712E-2,-2.8661808E-2],"categories":[0],"categories_nodes":[0],"categories_segments":[0],"categories_sizes":[1],"default_left":[1,0,0],"id":70,"left_children":[1,-1,-1],"loss_changes":[3.1963356E-2,0E0,0E0],"parents":[2147483647,0,0],"right_children":[2,-1,-1],"split_conditions":[NaN,2.205712E-2,-2.8661808E-2],"split_indices":[96,0,0],"split_type":[1,0,0],"sum_hessian":[2.535557E0,1.533288E0,1.0022691E0],"tree_param":{"num_deleted":"0","num_feature":"160","num_nodes":"3","size_leaf_vector":"1"}},{"base_weights":[-2.855602E-3,2.2895575E-2,-2.8217573E-2],"categories":[],"categories_nodes":[],"categories_segments":[],"categories_sizes":[],"default_left":[0,0,0],"id":71,"left_children":[1,-1,-1],"loss_changes":[3.2660764E-2,0E0,0E0],"parents":[2147483647,0,0],"right_children":[2,-1,-1],"split_conditions":[3.9E1,2.2895575E-2,-2.8217573E-2],"split_indices":[0,0,0],"split_type":[0,0,0],"sum_hessian":[2.5289607E0,1.4411154E0,1.0878454E0],"tree_param":{"num_deleted":"0","num_feature":"160","num_nodes":"3","size_leaf_vector":"1"}},{"base_weights":[-3.5110353E-3,-2.4620006E-2,2.8138997E-2],"categories":[],"categories_nodes":[],"categories_segments":[],"categories_sizes":[],"default_left":[0,0,0],"id":72,"left_children":[1,-1,-1],"loss_changes":[3.4590386E-2,0E0,0E0],"parents":[2147483647,0,0],"right_children":[2,-1,-1],"split_conditions":[6.3E1,-2.4620006E-2,2.8138997E-2],"split_indices":[120,0,0],"split_type":[0,0,0],"sum_hessian":[2.518127E0,1.4799794E0,1.0381476E0],"tree_param":{"num_deleted":"0","num_feature":"160","num_nodes":"3","size_leaf_vector":"1"}},{"base_weights":[-1.4403673E-3,-2.4133002E-2,2.709896E-2],"categories":[],"categories_nodes":[],"categories_segments":[],"categories_sizes":[],"default_left":[1,0,0],"id":73,"left_children":[1,-1,-1],"loss_changes":[3.271922E-2,0E0,0E0],"parents":[2147483647,0,0],"right_children":[2,-1,-1],"split_conditions":[2.81E1,-2.4133002E-2,2.709896E-2],"split_indices":[134,0,0],"split_type":[0,0,0],"sum_hessian":[2.510671E0,1.4155134E0,1.0951575E0],"tree_param":{"num_deleted":"0","num_feature":"160","num_nodes":"3","size_leaf_vector":"1"}},{"base_weights":[-1.4951687E-4,-2.4173692E-2,2.5718203E-2],"categories":[],"categories_nodes":[],"categories_segments":[],"categories_sizes":[],"default_left":[0,0,0],"id":74,"left_children":[1,-1,-1],"loss_changes":[3.1104561E-2,0E0,0E0],"parents":[2147483647,0,0],"right_children":[2,-1,-1],"split_conditions":[3E0,-2.4173692E-2,2.5718203E-2],"split_indices":[66,0,0],"split_type":[0,0,0],"sum_hessian":[2.5032055E0,1.3244555E0,1.17875E0],"tree_param":{"num_deleted":"0","num_feature":"160","num_nodes":"3","size_leaf_vector":"1"}},{"base_weights":[3.567031E-4,2.250262E-2,-2.713052E-2],"categories":[],"categories_nodes":[],"categories_segments":[],"categories_sizes":[],"default_left":[1,0,0],"id":75,"left_children":[1,-1,-1],"loss_changes":[3.0476652E-2,0E0,0E0],"parents":[2147483647,0,0],"right_children":[2,-1,-1],"split_conditions":[2.14E2,2.250262E-2,-2.713052E-2],"split_indices":[56,0,0],"split_type":[0,0,0],"sum_hessian":[2.495717E0,1.4649906E0,1.0307263E0],"tree_param":{"num_deleted":"0","num_feature":"160","num_nodes":"3","size_leaf_vector":"1"}},{"base_weights":[-1.0648038E-3,2.660937E-2,-2.2122787E-2],"categories":[0,1,4],"categories_nodes":[0],"categories_segments":[0],"categories_sizes":[3],"default_left":[1,0,0],"id":76,"left_children":[1,-1,-1],"loss_changes":[2.9295573E-2,0E0,0E0],"parents":[2147483647,0,0],"right_children":[2,-1,-1],"split_conditions":[NaN,2.660937E-2,-2.2122787E-2],"split_indices":[112,0,0],"split_type":[1,0,0],"sum_hessian":[2.4879837E0,1.0145323E0,1.4734514E0],"tree_param":{"num_deleted":"0","num_feature":"160","num_nodes":"3","size_leaf_vector":"1"}},{"base_weights":[5.5241084E-4,-2.7043052E-2,2.2084124E-2],"categories":[2],"categories_nodes":[0],"categories_segments":[0],"categories_sizes":[1],"default_left":[1,0,0],"id":77,"left_children":[1,-1,-1],"loss_changes":[2.9705362E-2,0E0,0E0],"parents":[2147483647,0,0],"right_children":[2,-1,-1],"split_conditions":[NaN,-2.7043052E-2,2.2084124E-2],"split_indices":[115,0,0],"split_type":[1,0,0],"sum_hessian":[2.4814808E0,1.0028145E0,1.4786664E0],"tree_param":{"num_deleted":"0","num_feature":"160","num_nodes":"3","size_leaf_vector":"1"}},{"base_weights":[-1.0313288E-3,2.3976317E-2,-2.3370456E-2],"categories":[0,2,3],"categories_nodes":[0],"categories_segments":[0],"categories_sizes":[3],"default_left":[1,0,0],"id":78,"left_children":[1,-1,-1],"loss_changes":[2.783037E-2,0E0,0E0],"parents":[2147483647,0,0],"right_children":[2,-1,-1],"split_conditions":[NaN,2.3976317E-2,-2.3370456E-2],"split_indices":[12,0,0],"split_type":[1,0,0],"sum_hessian":[2.4717996E0,1.1846015E0,1.2871982E0],"tree_param":{"num_deleted":"0","num_feature":"160","num_nodes":"3","size_leaf_vector":"1"}},{"base_weights":[-5.4399064E-4,2.3836864E-2,-2.2966051E-2],"categories":[],"categories_nodes":[],"categories_segments":[],"categories_sizes":[],"default_left":[0,0,0],"id":79,"left_children":[1,-1,-1],"loss_changes":[2.715012E-2,0E0,0E0],"parents":[2147483647,0,0],"right_children":[2,-1,-1],"split_conditions":[2.7E1,2.3836864E-2,-2.2966051E-2],"split_indices":[0,0,0],"split_type":[0,0,0],"sum_hessian":[2.4646015E0,1.178686E0,1.2859156E0],"tree_param":{"num_deleted":"0","num_feature":"160","num_nodes":"3","size_leaf_vector":"1"}},{"base_weights":[-1.1204208E-4,-2.168667E-2,2.64309E-2],"categories":[],"categories_nodes":[],"categories_segments":[],"categories_sizes":[],"default_left":[0,0,0],"id":80,"left_children":[1,-1,-1],"loss_changes":[2.8370572E-2,0E0,0E0],"parents":[2147483647,0,0],"right_children":[2,-1,-1],"split_conditions":[6.3E1,-2.168667E-2,2.64309E-2],"split_indices":[120,0,0],"split_type":[0,0,0],"sum_hessian":[2.4555387E0,1.4498339E0,1.0057049E0],"tree_param":{"num_deleted":"0","num_feature":"160","num_nodes":"3","size_leaf_vector":"1"}},{"base_weights":[1.3195302E-3,-2.2161894E-2,2.4348676E-2],"categories":[0,1],"categories_nodes":[0],"categories_segments":[0],"categories_sizes":[2],"default_left":[1,0,0],"id":81,"left_children":[1,-1,-1],"loss_changes":[2.6705014E-2,0E0,0E0],"parents":[2147483647,0,0],"right_children":[2,-1,-1],"split_conditions":[NaN,-2.2161894E-2,2.4348676E-2],"split_indices":[151,0,0],"split_type":[1,0,0],"sum_hessian":[2.4494982E0,1.2999907E0,1.1495076E0],"tree_param":{"num_deleted":"0","num_feature":"160","num_nodes":"3","size_leaf_vector":"1"}},{"base_weights":[1.5640956E-3,2.015191E-2,-2.3584772E-2],"categories":[],"categories_nodes":[],"categories_segments":[],"categories_sizes":[],"default_left":[1,0,0],"id":82,"left_children":[1,-1,-1],"loss_changes":[2.3398465E-2,0E0,0E0],"parents":[2147483647,0,0],"right_children":[2,-1,-1],"split_conditions":[2.14E2,2.015191E-2,-2.3584772E-2],"split_indices":[56,0,0],"split_type":[0,0,0],"sum_hessian":[2.4440663E0,1.4333887E0,1.0106776E0],"tree_param":{"num_deleted":"0","num_feature":"160","num_nodes":"3","size_leaf_vector":"1"}},{"base_weights":[1.0787672E-4,-2.201384E-2,2.27032E-2],"categories":[],"categories_nodes":[],"categories_segments":[],"categories_sizes":[],"default_left":[0,0,0],"id":83,"left_children":[1,-1,-1],"loss_changes":[2.4646478E-2,0E0,0E0],"parents":[2147483647,0,0],"right_children":[2,-1,-1],"split_conditions":[2.16E2,-2.201384E-2,2.27032E-2],"split_indices":[56,0,0],"split_type":[0,0,0],"sum_hessian":[2.4381318E0,1.2507869E0,1.1873449E0],"tree_param":{"num_deleted":"0","num_feature":"160","num_nodes":"3","size_leaf_vector":"1"}},{"base_weights":[2.9070815E-4,-2.0409072E-2,2.3271812E-2],"categories":[2],"categories_nodes":[0],"categories_segments":[0],"categories_sizes":[1],"default_left":[1,0,0],"id":84,"left_children":[1,-1,-1],"loss_changes":[2.340158E-2,0E0,0E0],"parents":[2147483647,0,0],"right_children":[2,-1,-1],"split_conditions":[NaN,-2.0409072E-2,2.3271812E-2],"split_indices":[15,0,0],"split_type":[1,0,0],"sum_hessian":[2.4326446E0,1.3547212E0,1.0779235E0],"tree_param":{"num_deleted":"0","num_feature":"160","num_nodes":"3","size_leaf_vector":"1"}},{"base_weights":[1.0498734E-3,-1.9869994E-2,2.428085E-2],"categories":[],"categories_nodes":[],"categories_segments":[],"categories_sizes":[],"default_left":[1,0,0],"id":85,"left_children":[1,-1,-1],"loss_changes":[2.3784522E-2,0E0,0E0],"parents":[2147483647,0,0],"right_children":[2,-1,-1],"split_conditions":[1.3E1,-1.9869994E-2,2.428085E-2],"split_indices":[90,0,0],"split_type":[0,0,0],"sum_hessian":[2.4276907E0,1.4105654E0,1.0171254E0],"tree_param":{"num_deleted":"0","num_feature":"160","num_nodes":"3","size_leaf_vector":"1"}},{"base_weights":[2.0450782E-3,2.0950738E-2,-2.3490882E-2],"categories":[],"categories_nodes":[],"categories_segments":[],"categories_sizes":[],"default_left":[0,0,0],"id":86,"left_children":[1,-1,-1],"loss_changes":[2.4116537E-2,0E0,0E0],"parents":[2147483647,0,0],"right_children":[2,-1,-1],"split_conditions":[3.9E1,2.0950738E-2,-2.3490882E-2],"split_indices":[0,0,0],"split_type":[0,0,0],"sum_hessian":[2.4236655E0,1.3855184E0,1.0381471E0],"tree_param":{"num_deleted":"0","num_feature":"160","num_nodes":"3","size_leaf_vector":"1"}},{"base_weights":[6.968806E-4,-2.2188336E-2,1.9934073E-2],"categories":[],"categories_nodes":[],"categories_segments":[],"categories_sizes":[],"default_left":[0,0,0],"id":87,"left_children":[1,-1,-1],"loss_changes":[2.1679644E-2,0E0,0E0],"parents":[2147483647,0,0],"right_children":[2,-1,-1],"split_conditions":[4E0,-2.2188336E-2,1.9934073E-2],"split_indices":[48,0,0],"split_type":[0,0,0],"sum_hessian":[2.4153512E0,1.0725763E0,1.3427749E0],"tree_param":{"num_deleted":"0","num_feature":"160","num_nodes":"3","size_leaf_vector":"1"}},{"base_weights":[-1.6974659E-4,-1.9178823E-2,2.2887107E-2],"categories":[],"categories_nodes":[],"categories_segments":[],"categories_sizes":[],"default_left":[0,0,0],"id":88,"left_children":[1,-1,-1],"loss_changes":[2.149061E-2,0E0,0E0],"parents":[2147483647,0,0],"right_children":[2,-1,-1],"split_conditions":[1.52E1,-1.9178823E-2,2.2887107E-2],"split_indices":[90,0,0],"split_type":[0,0,0],"sum_hessian":[2.4078305E0,1.4023247E0,1.0055057E0],"tree_param":{"num_deleted":"0","num_feature":"160","num_nodes":"3","size_leaf_vector":"1"}},{"base_weights":[9.872434E-4,1.8702092E-2,-2.1589577E-2],"categories":[],"categories_nodes":[],"categories_segments":[],"categories_sizes":[],"default_left":[0,0,0],"id":89,"left_children":[1,-1,-1],"loss_changes":[1.971917E-2,0E0,0E0],"parents":[2147483647,0,0],"right_children":[2,-1,-1],"split_conditions":[8.85E1,1.8702092E-2,-2.1589577E-2],"split_indices":[133,0,0],"split_type":[0,0,0],"sum_hessian":[2.4033325E0,1.3844647E0,1.0188679E0],"tree_param":{"num_deleted":"0","num_feature":"160","num_nodes":"3","size_leaf_vector":"1"}},{"base_weights":[-1.5859392E-4,-1.981123E-2,2.2573896E-2],"categories":[],"categories_nodes":[],"categories_segments":[],"categories_sizes":[],"default_left":[1,0,0],"id":90,"left_children":[1,-1,-1],"loss_changes":[2.1848228E-2,0E0,0E0],"parents":[2147483647,0,0],"right_children":[2,-1,-1],"split_conditions":[2.81E1,-1.981123E-2,2.2573896E-2],"split_indices":[134,0,0],"split_type":[0,0,0],"sum_hessian":[2.3978574E0,1.3460692E0,1.0517881E0],"tree_param":{"num_deleted":"0","num_feature":"160","num_nodes":"3","size_leaf_vector":"1"}},{"base_weights":[7.1563193E-4,1.9222928E-2,-2.222432E-2],"categories":[0,1,2,3],"categories_nodes":[0],"categories_segments":[0],"categories_sizes":[4],"default_left":[1,0,0],"id":91,"left_children":[1,-1,-1],"loss_changes":[2.0825688E-2,0E0,0E0],"parents":[2147483647,0,0],"right_children":[2,-1,-1],"split_conditions":[NaN,1.9222928E-2,-2.222432E-2],"split_indices":[7,0,0],"split_type":[1,0,0],"sum_hessian":[2.3927486E0,1.372998E0,1.0197506E0],"tree_param":{"num_deleted":"0","num_feature":"160","num_nodes":"3","size_leaf_vector":"1"}},{"base_weights":[-3.7686568E-4,-2.0561881E-2,1.9162785E-2],"categories":[],"categories_nodes":[],"categories_segments":[],"categories_sizes":[],"default_left":[0,0,0],"id":92,"left_children":[1,-1,-1],"loss_changes":[1.9210203E-2,0E0,0E0],"parents":[2147483647,0,0],"right_children":[2,-1,-1],"split_conditions":[8.07E1,-2.0561881E-2,1.9162785E-2],"split_indices":[69,0,0],"split_type":[0,0,0],"sum_hessian":[2.3866124E0,1.1256968E0,1.2609155E0],"tree_param":{"num_deleted":"0","num_feature":"160","num_nodes":"3","size_leaf_vector":"1"}},{"base_weights":[-6.717825E-4,2.0740356E-2,-1.8581335E-2],"categories":[],"categories_nodes":[],"categories_segments":[],"categories_sizes":[],"default_left":[0,0,0],"id":93,"left_children":[1,-1,-1],"loss_changes":[1.8747855E-2,0E0,0E0],"parents":[2147483647,0,0],"right_children":[2,-1,-1],"split_conditions":[9E-1,2.0740356E-2,-1.8581335E-2],"split_indices":[13,0,0],"split_type":[0,0,0],"sum_hessian":[2.38243E0,1.0535669E0,1.3288633E0],"tree_param":{"num_deleted":"0","num_feature":"160","num_nodes":"3","size_leaf_vector":"1"}},{"base_weights":[1.8669285E-4,1.919498E-2,-2.252689E-2],"categories":[],"categories_nodes":[],"categories_segments":[],"categories_sizes":[],"default_left":[0,0,0],"id":94,"left_children":[1,-1,-1],"loss_changes":[2.1030422E-2,0E0,0E0],"parents":[2147483647,0,0],"right_children":[2,-1,-1],"split_conditions":[3.9E1,1.919498E-2,-2.252689E-2],"split_indices":[0,0,0],"split_type":[0,0,0],"sum_hessian":[2.3787355E0,1.3687466E0,1.009989E0],"tree_param":{"num_deleted":"0","num_feature":"160","num_nodes":"3","size_leaf_vector":"1"}},{"base_weights":[-8.6221745E-4,-1.8007243E-2,2.0891972E-2],"categories":[],"categories_nodes":[],"categories_segments":[],"categories_sizes":[],"default_left":[0,0,0],"id":95,"left_children":[1,-1,-1],"loss_changes":[1.8242525E-2,0E0,0E0],"parents":[2147483647,0,0],"right_children":[2,-1,-1],"split_conditions":[6.2E1,-1.8007243E-2,2.0891972E-2],"split_indices":[120,0,0],"split_type":[0,0,0],"sum_hessian":[2.371448E0,1.3702341E0,1.0012139E0],"tree_param":{"num_deleted":"0","num_feature":"160","num_nodes":"3","size_leaf_vector":"1"}},{"base_weights":[2.7201115E-4,-1.8458048E-2,1.966006E-2],"categories":[],"categories_nodes":[],"categories_segments":[],"categories_sizes":[],"default_left":[0,0,0],"id":96,"left_children":[1,-1,-1],"loss_changes":[1.761477E-2,0E0,0E0],"parents":[2147483647,0,0],"right_children":[2,-1,-1],"split_conditions":[3E0,-1.8458048E-2,1.966006E-2],"split_indices":[66,0,0],"split_type":[0,0,0],"sum_hessian":[2.367819E0,1.2455667E0,1.1222523E0],"tree_param":{"num_deleted":"0","num_feature":"160","num_nodes":"3","size_leaf_vector":"1"}},{"base_weights":[5.4621673E-4,1.7670408E-2,-2.0603012E-2],"categories":[],"categories_nodes":[],"categories_segments":[],"categories_sizes":[],"default_left":[0,0,0],"id":97,"left_children":[1,-1,-1],"loss_changes":[1.7631484E-2,0E0,0E0],"parents":[2147483647,0,0],"right_children":[2,-1,-1],"split_conditions":[8.85E1,1.7670408E-2,-2.0603012E-2],"split_indices":[133,0,0],"split_type":[0,0,0],"sum_hessian":[2.3633592E0,1.3632452E0,1.0001138E0],"tree_param":{"num_deleted":"0","num_feature":"160","num_nodes":"3","size_leaf_vector":"1"}},{"base_weights":[-4.7505452E-4,-1.998347E-2,1.7346067E-2],"categories":[],"categories_nodes":[],"categories_segments":[],"categories_sizes":[],"default_left":[0,0,0],"id":98,"left_children":[1,-1,-1],"loss_changes":[1.6800547E-2,0E0,0E0],"parents":[2147483647,0,0],"right_children":[2,-1,-1],"split_conditions":[4E0,-1.998347E-2,1.7346067E-2],"split_indices":[48,0,0],"split_type":[0,0,0],"sum_hessian":[2.358639E0,1.038169E0,1.3204701E0],"tree_param":{"num_deleted":"0","num_feature":"160","num_nodes":"3","size_leaf_vector":"1"}},{"base_weights":[-1.1220147E-3,1.6800305E-2,-2.0279016E-2],"categories":[],"categories_nodes":[],"categories_segments":[],"categories_sizes":[],"default_left":[0,0,0],"id":99,"left_children":[1,-1,-1],"loss_changes":[1.6515963E-2,0E0,0E0],"parents":[2147483647,0,0],"right_children":[2,-1,-1],"split_conditions":[3.9E1,1.6800305E-2,-2.0279016E-2],"split_indices":[0,0,0],"split_type":[0,0,0],"sum_hessian":[2.352564E0,1.3500223E0,1.0025419E0],"tree_param":{"num_deleted":"0","num_feature":"160","num_nodes":"3","size_leaf_vector":"1"}}]},"name":"gbtree"},"learner_model_param":{"base_score":"5E-1","boost_from_average":"1","num_class":"0","num_feature":"160","num_target":"1"},"objective":{"name":"binary:logistic","reg_loss_param":{"scale_pos_weight":"25.4125004"}}},"version":[2,1,3]}